48 96 10
-2.133736 -3.071481 -0.499257 -4.145090 -3.445060 -1.030394 -1.548859 
1.829474 -1.447787 0.845582 -1.329845 -3.097902 -1.187851 -1.877563 
1.307585 -2.155700 -1.328343 3.143916 1.081500 -0.934216 0.548276 
0.001995 -1.267235 -0.303871 -0.076410 -1.296332 -1.807544 1.198271 
-1.144902 -0.723655 1.471486 0.367736 -0.203365 -1.628982 -3.331730 
0.428571 -2.763274 1.488401 -0.346436 -0.292766 -3.383873 -1.090739 
-1.310420 0.435952 -0.860263 -1.430663 -0.071121 0.480836 -1.495526 
0.189795 -1.580418 1.473928 0.282623 -1.504995 -1.048205 -5.147037 
-1.805733 0.989818 -0.784157 -2.093667 -2.941295 -2.534798 -0.380353 
1.095565 -1.781144 -1.139054 -1.156451 -0.092687 -2.361513 -0.697214 
-1.542494 0.638584 -2.815930 0.671651 -0.796831 -2.147310 1.686787 
-1.152442 -0.529308 0.371184 0.756973 0.181721 -1.141190 0.524578 
0.641612 1.746026 1.588189 -4.532686 -1.462832 -0.889972 1.155051 
1.508432 -1.320448 -4.214794 1.687966 3.030650 -1.864444 -0.284677 
-0.378683 -2.904428 -4.956288 -1.673723 -3.455565 -0.218118 -1.995611 
-2.366621 -1.928883 -2.375337 -2.385101 -2.823283 1.046945 -1.311661 
-2.116024 -1.607822 -1.702243 -1.394069 -0.683454 -1.528805 -3.363514 
-0.315133 -1.006164 -2.988510 -2.597452 1.563680 -2.228857 -1.191970 
1.763591 1.542348 -1.444529 -1.977950 0.227039 0.571625 -0.192613 
-0.145803 0.777344 -1.908788 -2.872167 -1.605490 -3.341944 0.502145 
-0.800995 -2.685355 -1.985978 -1.423807 0.902914 -0.085029 -1.328859 
-0.426805 -1.905844 -3.169609 -1.045525 -5.577897 -3.189533 -0.204040 
-0.543135 -1.001986 -2.993056 -2.187570 -2.349347 -1.397067 -2.180897 
-2.758763 -4.107233 0.111079 -3.718305 -1.290669 -2.297413 -0.396174 
-1.582827 -0.154029 -0.435811 -1.878262 1.065885 -0.457372 -2.152440 
1.175962 -0.234727 0.438993 -1.951542 -1.311718 -1.705386 -0.477885 
2.396228 -4.559003 -1.128831 -2.522254 0.424299 0.275780 -1.644664 
-4.306734 -1.361390 0.675529 -1.796790 0.917687 -0.709851 -1.016855 
-5.286920 -1.810270 -3.867817 -1.750544 -1.579283 -2.998283 -2.454691 
-1.416784 -3.616256 -2.524533 1.672970 -0.402969 -2.648650 -3.917000 
-3.390084 -1.380942 -1.847318 -2.762140 -4.210556 -0.563282 -0.346288 
-3.000691 -3.338956 1.406425 -2.674305 -2.492892 0.336036 0.689269 
-1.412353 -1.602837 1.933902 0.152537 1.414202 -1.313992 -0.119866 
-2.088394 -1.971315 -2.211431 -4.691887 0.057791 -1.537919 -2.232061 
-2.617797 -2.705131 0.830831 -0.583293 -1.092870 -2.536350 -3.874199 
-3.925523 -1.791723 -4.803236 -4.056854 -2.340362 -1.373708 -0.902662 
-1.870403 -1.785249 -3.125078 -2.936147 -2.813667 -3.492422 -4.893882 
-1.296570 -3.565408 -2.429122 -2.328034 -0.348147 -1.965470 -1.642279 
-1.318109 -0.705666 0.060196 -1.108350 -2.776392 0.620338 -0.799301 
-0.102333 -1.589455 -3.195971 -1.964302 -1.657561 2.800107 -2.604869 
-1.100713 -3.153094 -0.518911 -1.671281 -1.058546 -3.225500 -3.344881 
-1.108015 -1.219625 0.410454 -2.330806 -1.576423 -1.699467 -1.224667 
-4.546877 -1.589321 -1.117843 -4.065581 -2.350655 -1.160824 -2.626858 
-2.601502 0.716331 -0.759461 -2.107075 -3.939382 -2.801559 -0.333235 
-3.013107 -3.678269 -4.199876 -0.441670 -0.736924 -2.589528 -4.390383 
-0.834750 -3.331393 -0.926270 1.625442 -1.751010 -1.727356 -2.196988 
0.674487 -1.565169 -0.459479 -2.552340 -1.247363 -2.724712 -0.897366 
-2.782352 -4.619951 -1.261687 -2.516445 -0.981590 -2.839844 -4.208109 
-0.292725 -2.817243 -0.121981 -2.868898 -4.115259 -2.038030 -1.826776 
-1.750184 -4.225889 -3.752530 -1.086266 -1.881632 -0.286889 -0.683801 
-0.370180 -3.565614 -1.495068 -3.770580 -3.374773 -1.752760 -2.579497 
-2.140298 -2.133330 -1.613608 -3.461879 -1.841045 -0.828152 0.563146 
-0.270847 -1.758754 -1.986141 -0.928444 -1.090486 -0.892571 -0.633940 
-2.682103 -1.649067 -1.607785 0.758533 -1.773959 -2.085131 -4.205595 
-1.250461 -2.389911 -2.499657 -2.088566 -4.624437 -2.861340 -2.864304 
-2.008916 -4.103097 -2.259239 -0.066874 -0.411471 -4.128718 -0.557539 
-2.541242 -3.103000 -1.240923 -2.435452 -1.684725 -3.476927 -0.751685 
-0.560788 -2.899816 -2.325801 -0.386521 -1.341298 -3.690585 -4.673163 
-4.377888 -1.081675 -2.151932 -1.501289 -4.267516 -2.132975 -4.199088 
-0.284626 2.801652 -4.232138 -0.909601 -3.486524 -0.663372 -2.719291 
-2.409026 -2.040708 -2.254493 -4.192434 -1.077245 -4.805911 -2.650481 
-2.215451 -3.285732 -0.917211 -1.630321 -3.569278 -2.809145 -3.645674 
-2.253406 -2.474751 -4.403110 1.140958 -1.064344 -0.924026 -4.140265 
-3.794856 -0.415801 -3.409749 -0.422526 -2.901066 2.272005 -3.516416 
-0.849525 -3.760759 -1.919856 -2.574728 -3.084187 -3.029190 -3.457307 
-3.332508 -5.912960 -1.726687 -1.131872 0.341409 -0.193976 -2.090446 
-0.869221 -1.900094 -1.956185 -2.199697 -0.573598 -2.797469 -0.114043 
-1.284252 -1.211703 -1.149074 -3.342458 -2.407707 -1.715003 -1.654354 
-3.188827 -0.496623 -3.259763 -2.792526 -1.986685 -3.674251 -2.522580 
-3.497912 -0.127236 1.468828 -2.058290 2.241803 -2.850803 -0.084993 
-0.518428 -4.215321 0.809690 -2.186624 0.017642 -1.216417 -1.520964 
2.496789 2.682449 -1.243838 -1.671863 -1.962538 -1.658438 -0.663478 
-1.952747 -0.616658 -2.144610 -0.897674 -1.935001 -0.316502 2.366737 
-2.943117 0.479988 -3.392400 -4.367264 -1.716181 -4.390883 1.466839 
-2.989934 -2.572192 -2.656599 -3.385750 -0.739732 -1.294512 -1.294499 
0.253118 0.269930 -1.387918 -4.379506 -2.244328 -2.998639 0.332929 
-1.237713 2.421788 -0.472119 -2.320337 -2.244856 -1.824672 -1.080812 
-2.866695 -0.818567 -3.938144 2.617439 -0.085119 0.072479 -2.101648 
1.590689 -0.936462 -3.004940 -3.434244 -1.322562 -1.526383 -4.801848 
-0.777351 -0.690173 0.081603 1.072598 -0.420739 0.697377 -1.657201 
0.100761 -1.869139 -0.368444 -0.693525 2.021493 2.133513 0.869459 
-1.161088 -2.645108 0.214682 -0.994595 1.559755 -3.389400 -1.386879 
2.143241 1.289685 -3.675754 -0.128895 -0.794700 -1.008264 -4.672496 
0.046472 -1.325691 0.782440 -2.018553 -1.612833 -1.424020 -2.062597 
-2.339785 0.672478 0.540856 -3.473532 -0.968452 -0.769135 -3.522498 
-1.388242 -0.696052 -1.048398 -1.816114 -2.271178 -3.346243 -0.262709 
-2.758476 -0.229344 0.429670 -1.826263 -2.853329 0.748089 -1.051420 
-3.024849 -0.955994 -2.849047 -1.135861 0.446097 -1.118365 -1.882688 
-1.680191 -1.596443 -4.682016 -1.135771 -0.342099 -0.958151 -2.741436 
-3.152101 -0.839125 -0.846039 -2.655597 -1.166793 -1.382872 -3.562096 
-1.653021 -3.670067 -2.547361 -1.029727 -0.718158 -0.437065 -1.839059 
-1.684579 -4.378893 -0.114663 -0.859712 -3.079737 -2.557376 -0.195484 
-1.808000 -3.302256 0.388643 -0.774495 -0.566212 -3.205112 -2.393548 
-0.656443 -1.370352 1.490074 -2.198630 -1.036309 -1.355255 -2.345893 
-2.177023 -2.558084 -1.328560 -0.409302 3.900643 -2.360680 -0.819612 
-1.247246 -0.187934 -0.187528 -1.214342 -2.287801 -0.564359 -0.418514 
-2.801146 -1.403801 -2.279489 -1.214604 -2.805505 -2.314567 -0.469667 
-0.757804 -2.026275 -0.553080 -2.545105 -0.901814 -2.059101 -0.436771 
-0.664488 -2.228994 -0.456724 -1.034784 -3.780210 -0.768497 -1.354522 
0.730163 -1.187265 -3.900313 -3.090166 0.313712 -0.621252 0.284638 
-1.429765 -4.060370 -4.021930 -0.381129 -1.230166 -4.213773 -2.010204 
-0.528432 -0.993707 -0.968330 -1.404608 -0.923236 -2.369373 -1.055593 
-2.403942 -2.412132 0.835936 -1.163615 0.305239 -0.739550 -1.578537 
1.111278 -2.247177 -0.794246 -0.847028 -3.674563 -2.265615 -1.379555 
-1.446976 -1.109651 -3.049968 1.304371 -1.101278 -2.451702 -3.976097 
-2.000748 -2.950586 -1.573838 -2.135609 -1.333037 -0.331062 -2.550608 
-2.727804 -1.497224 1.545346 -2.421947 -3.475593 0.439788 -3.022713 
0.314792 0.526589 -0.536894 -1.128162 -1.168777 -3.269871 -2.409337 
-1.361072 -1.701217 0.453945 -1.233117 -1.807105 0.280837 -1.853968 
-1.647364 -1.175270 0.208238 0.187350 -0.499570 -2.723874 -5.126073 
-3.048095 -2.914654 1.353706 -2.220145 1.867375 0.956630 -1.459381 
2.220520 -1.848617 -2.078427 1.372031 -0.731585 -4.858869 -1.637788 
0.234704 2.290359 0.711913 -1.354441 -2.203006 1.892162 0.328748 
-1.891698 -3.238734 1.673113 0.486907 -2.213759 -1.557950 -1.845378 
-2.989477 -2.730454 -0.556148 -3.820781 -5.034337 -0.421687 -4.201750 
0.720630 -1.553430 -2.148933 -1.546549 -1.849504 1.765433 -3.231279 
0.342309 0.440245 2.146870 1.658640 -4.666963 1.722512 -3.862806 
0.856915 0.618666 0.244819 -1.604081 0.004587 0.609041 0.386281 
-1.395168 0.139531 -2.300081 -3.357119 1.553329 -0.339990 -1.503775 
0.106711 2.545723 -1.651240 0.839262 -1.610471 -2.520684 -2.021014 
-0.232691 -0.770101 -3.235861 -1.835304 -2.539958 0.362132 3.310337 
-2.331344 0.148937 -1.739260 -2.088900 -0.347925 -0.680673 -0.164664 
-2.804484 -0.575695 -2.356646 3.210272 -1.294021 -1.252002 -2.402567 
0.817952 3.237066 0.632312 -2.686451 -3.766284 -2.190488 -2.838508 
0.924321 -2.103874 1.844103 2.567061 -1.855597 1.028494 -1.215883 
-2.036810 1.397312 -1.472864 -3.395002 -1.151354 -0.077737 3.109441 
3.155960 -0.712043 0.434947 1.072001 2.510899 -3.072620 -3.182135 
0.979866 0.339754 -2.581493 -0.806914 -0.984118 -1.738312 -1.911288 
-0.649278 -4.770579 -6.436679 -1.300745 -4.905046 0.094781 -3.928076 
-1.125021 -3.588262 -2.583405 2.978175 -2.885384 -0.287083 -1.168319 
1.561445 0.956187 -5.071766 0.615533 -2.693641 1.074185 1.666395 
0.833374 -0.415977 0.518051 -0.340495 0.470310 -1.792400 -1.052420 
-1.209964 -3.328771 1.704001 1.870609 -2.406945 -0.762405 3.020728 
-0.828961 0.121516 -1.628333 -1.428013 -2.266219 -1.185673 -1.400890 
-3.125964 -1.128254 -2.048750 -1.716628 2.020465 -2.564220 0.425679 
-2.918848 -0.684718 0.642606 0.729924 2.083230 -4.109064 -1.038390 
-2.501183 2.932673 -1.979198 0.138353 -1.441842 1.042431 2.953062 
1.632779 -3.049481 -1.748070 -3.278668 -2.770796 -1.985347 -1.456144 
-2.247504 2.960980 -2.478106 -1.032304 -1.190135 -2.346372 -0.486338 
-3.247900 -2.467094 -0.253868 -1.704317 1.619205 1.353126 -0.103008 
-1.550072 -1.159566 -1.364285 -1.971277 -2.966800 -1.134114 -2.059307 
-0.969487 -3.464298 -2.131001 1.783362 -1.832604 -1.547566 -6.643535 
-3.010148 -1.553975 -3.080774 0.604641 -2.564648 -3.281712 -4.698908 
-4.416844 -0.289796 -1.847800 -0.871325 -1.744815 -0.182620 -0.843364 
-2.735272 -0.847681 -2.573510 0.971510 -0.464096 -0.311710 0.195040 
-2.213268 -4.059010 -1.800216 -0.658378 -1.371351 -1.287905 -5.417946 
1.250481 -0.329067 -2.778369 -4.206815 -0.162426 -0.644460 -2.761894 
-3.859909 -3.546445 -2.423631 -3.755781 -1.338797 -2.607675 0.055547 
0.327952 -0.936162 1.161412 -1.846857 0.409543 -1.500113 0.086285 
-1.360417 0.390793 1.440198 -0.396501 -1.517237 -2.824652 0.776641 
-1.765697 0.466871 -3.061349 0.533265 0.294192 1.261898 -3.567652 
-1.831486 -2.654007 -1.359438 -4.785882 -0.493045 -5.188488 -2.738112 
-3.508169 -2.768371 -0.533502 -2.997788 -2.173942 -2.824755 -2.201939 
-0.903845 -4.717958 -4.886812 -3.685354 -3.907393 -3.604103 -2.231612 
-4.947514 -0.542833 -3.998012 -1.984190 -2.907571 1.282219 -3.757360 
-2.772564 -0.337633 0.004113 -1.313328 -3.253940 2.346722 -2.626992 
0.476751 0.444675 1.035622 -4.324228 -1.037051 -3.699201 -3.668315 
-1.018192 -0.854205 -2.860822 -0.935242 -3.202847 0.241716 0.421848 
-2.757983 -4.287885 -3.159909 -2.392840 -0.834871 -5.396585 -4.799254 
-1.639690 -0.008573 1.541928 -1.749291 -4.191434 -3.322746 -4.391629 
-1.072062 -5.512472 -5.925559 -1.504653 -6.147102 -3.703485 -4.066811 
-1.845433 -2.573147 -3.227184 -1.881343 1.591375 -1.488198 1.493865 
-2.383056 0.693792 -2.749562 -0.510691 -2.376650 -3.799759 -2.460294 
-2.356513 3.171981 -1.335755 -3.822446 -1.977267 -1.976019 -2.479046 
-2.594227 -1.083909 -3.507590 -2.270896 -3.171685 -0.848828 -0.513424 
-0.913746 -3.665228 0.228073 -1.126370 -0.913639 -2.377541 -1.828687 
-1.107843 -0.372547 -2.485342 0.677883 0.766414 -5.212222 -0.061083 
-1.677030 -4.912446 -1.209460 -0.831315 0.045064 -1.025132 -2.878017 
-4.413593 0.350598 -1.936289 1.011057 2.029700 -2.165115 -6.007203 
1.502788 0.804541 -1.987844 -0.655984 -3.471256 -0.815202 -0.340726 
-0.921419 -0.576557 -1.362765 -0.333188 -4.346017 -0.617844 -0.375591 
-1.517065 -2.552585 -2.315810 0.043398 -0.428831 -0.353379 -1.539685 
-2.178446 -3.306312 -2.566807 -0.914203 -3.526716 -1.670528 -2.650824 
3.106542 -0.908484 0.023650 -5.517789 -1.175316 -2.484082 -3.069987 
-4.457215 -2.187281 -0.981027 -2.562818 0.084459 -0.217388 1.554862 
-2.593965 -1.567034 1.969081 -3.592957 1.288890 -1.403701 -0.424503 
-2.106043 -1.379283 -2.739391 -3.475806 -1.659748 1.039864 3.938605 
-1.807159 -0.621439 -0.362477 -0.951899 -1.446804 0.314347 -1.521271 
-1.302773 -1.378988 -1.887354 -0.097480 -1.555578 -1.055651 -0.778547 
0.148749 1.334839 0.172769 -1.014546 0.468683 -2.025428 -0.514233 
-1.684265 1.604086 -1.318606 -2.636320 0.572390 -0.000650 -2.650253 
0.154736 -0.592778 0.257244 -0.141205 -2.152690 -1.909496 1.240124 
-1.076114 -1.678151 1.265425 -0.946223 -4.734940 -1.255302 -0.119224 
-1.278140 -2.234166 -2.550098 -1.822604 -1.417735 -2.103875 -0.839766 
-0.380352 -0.289266 -2.529085 -1.927674 -0.089568 0.248516 -1.447821 
-1.630948 -2.530728 -0.468411 -1.781254 -0.487863 -0.477411 -2.112626 
-2.673293 1.215015 -0.022162 -1.220791 -1.841390 0.145538 -1.508282 
0.171715 -2.241230 -0.592142 -0.578194 -0.183939 0.093855 -1.796950 
1.398635 -1.595668 0.354924 -1.580867 0.374103 -1.378383 -2.282164 
-1.358708 -3.461194 0.422336 0.357284 -2.261988 -0.721408 -2.020319 
-2.214269 -1.763958 -1.556418 -0.743314 -0.015170 -0.488916 -0.162660 
0.175192 -0.928253 -2.242886 -0.275390 -1.258882 -0.051054 -1.894145 
-1.346682 -1.015804 -1.075236 0.093371 -0.014731 1.156037 1.446887 
-0.517215 -1.325236 0.777663 -0.433650 -1.349426 -0.370045 0.691264 
-2.321251 -1.149364 -0.942846 -0.943414 -1.094638 -1.255921 -0.938192 
-0.877162 -0.140460 -1.446822 -2.386386 0.338979 -0.131095 -1.878614 
0.184102 0.128163 -2.793610 -0.810192 -0.436967 -0.754276 -0.947650 
-2.738237 -0.709245 -0.317338 -1.378170 -1.647225 1.641701 -1.484894 
-0.953511 -1.403700 -0.592645 0.503356 -0.764922 -1.751833 -2.491683 
-0.077844 -1.725785 -0.852623 0.369494 -0.017214 -1.450344 0.394102 
0.956915 -0.042048 0.304131 -0.516303 -0.966623 0.087661 -1.426033 
0.297600 1.308124 -0.818770 1.648202 -1.304094 0.747056 -1.867382 
0.821416 -1.509731 0.346349 -2.209594 -1.766665 -0.856026 -2.337783 
1.119007 -0.173961 -2.748346 -1.651946 -1.644909 -1.316967 -1.204669 
-0.812567 -1.280779 -0.568007 1.480766 -0.679629 -0.058785 -0.689477 
-1.477684 -0.505059 0.191939 0.610474 -1.840142 -1.766330 -0.149297 
-0.560720 0.114540 -0.564829 1.455841 -1.341848 -0.417181 -3.193530 
-0.925773 0.221554 -1.273527 1.307835 0.600474 -0.843036 -1.133094 
-1.044336 -0.969872 1.410730 -2.007102 -0.061503 -2.409692 0.585652 
-2.229480 -3.220714 -0.361130 -0.689117 -2.558389 0.914752 0.861314 
-0.731618 -0.926286 -0.979144 -0.557414 -1.503689 -4.471160 -2.550776 
-0.388514 -2.663852 -2.035853 0.605553 -1.607774 -0.316285 -1.482666 
-1.056126 -0.782496 -1.859348 -3.666901 -1.786188 -1.916980 -1.589140 
-2.912002 0.882677 1.401691 0.373418 -1.031230 -0.201311 -0.834660 
0.069925 -0.765592 -0.111269 -1.343925 -0.662813 1.361490 1.031430 
-1.371335 1.007860 -1.657696 -1.627750 -2.630294 0.426802 -1.838824 
-1.672084 -3.318411 -1.391113 0.625213 -2.460282 -0.077731 -1.738823 
-3.238837 -1.205618 -3.417567 0.057039 -1.492739 -0.475939 0.168728 
-1.454170 1.369563 -1.370143 -1.505847 -2.262341 -0.241209 -1.409807 
1.860359 -0.170362 -0.857369 -2.073369 -1.201508 -2.040551 0.176013 
-1.923039 2.492565 -5.515855 -2.121803 -3.816632 -3.421185 0.078614 
-3.217717 0.368307 -2.328746 0.944521 0.060532 -3.056023 -3.196970 
-0.400379 -4.042542 -1.564432 -4.953636 -3.241564 -1.543161 -3.520893 
-1.845786 -2.870388 -1.382163 -2.977505 0.177535 2.194557 -3.061499 
-0.365138 -2.546719 1.178526 -3.753261 -1.857619 -0.672355 -3.288704 
-3.673801 -0.478737 -4.420198 -3.040093 -0.690135 -1.904403 -1.740349 
-1.928129 -6.033278 -1.495660 -2.980080 -1.530867 -5.242242 -2.880158 
1.562114 1.009576 -2.770183 -3.168079 -3.484236 -0.438070 -0.044053 
0.544373 -3.004923 1.153852 -1.373900 0.479174 -3.250646 -1.727763 
-2.127475 -4.514908 -3.747770 -1.329210 -1.916847 -3.840823 -3.971618 
-1.654751 2.060388 -1.100768 -0.447173 -1.941831 -1.129091 -2.487055 
-2.549402 -0.374202 -2.232390 -0.085024 -2.184431 0.876288 1.779386 
-2.617630 -4.296234 -3.331158 -0.877004 -3.265252 1.327015 -2.486467 
-2.377446 -1.919254 0.685354 -2.356841 0.830433 -2.382411 -2.044519 
-4.073811 -2.409508 -1.786675 -4.010260 0.059477 0.896640 -2.925682 
-2.108180 -0.330877 -0.408388 -2.555963 -4.765459 -3.557376 -0.881122 
-2.222554 -2.231082 -3.160744 -0.241439 -1.624087 -1.407854 -1.867760 
0.975183 -2.633934 -2.325757 0.514794 0.015042 -1.534629 -2.347098 
2.224985 -2.166918 1.820149 -1.752191 -0.319674 -2.622554 -2.396660 
-2.150530 -1.985087 -0.166092 -1.790583 -1.992582 -2.044971 -2.750296 
2.035502 -1.322791 0.404892 -2.321259 -2.998679 -1.434610 -0.293498 
-0.412333 -5.623158 -3.625134 -0.538400 1.065016 0.912269 -1.930104 
-1.881187 -5.046628 -2.249434 -4.927548 -5.857375 -2.190614 -3.952139 
-1.979110 -2.577412 -1.471503 -1.869463 -1.521287 0.035799 4.506754 
-0.910955 -0.713860 -2.358607 1.103678 -1.442626 -0.122473 -0.270372 
-3.577705 -0.706140 0.107563 0.847858 -0.098262 -2.182224 -1.389479 
-2.247404 -2.202141 -1.163805 1.129206 -5.058616 -2.803867 -0.476158 
-0.789050 -0.618386 -1.098452 -1.310585 -2.356890 -1.058088 -2.556005 
-0.648522 -1.629624 0.111250 1.708738 -2.115634 0.616909 0.511583 
-4.767487 1.091099 -1.104374 -4.771254 0.053925 -0.237423 2.574054 
0.697981 -2.118633 -2.393568 -0.019159 -1.223367 0.294066 1.821671 
-2.116374 -5.838749 1.331903 0.085789 0.940222 -1.249558 -2.623332 
-0.127406 -0.978209 -0.572853 1.319243 -1.345523 0.242541 -1.638591 
-0.431469 -1.301793 -2.016466 -1.118372 -0.066498 1.669959 0.207187 
1.370471 0.661034 -2.328819 -2.077259 -2.447411 1.098699 -2.765643 
-0.817442 -2.659920 3.480974 -1.316476 0.534739 -5.144377 -3.344037 
-3.685587 -2.216326 -5.466707 -2.225193 1.062704 0.663675 -0.031990 
0.172397 1.767948 -0.483599 0.942544 2.486727 -2.889291 -2.059697 
-1.094960 1.125975 -1.520960 0.593780 -1.765180 -2.419940 -1.806859 
1.458725 -0.261639 -2.506691 -0.164574 1.019565 -0.538589 -2.739784 
2.060358 -0.674462 -2.757090 -1.557467 -2.487965 -2.351092 -1.220940 
-1.049369 -0.595363 0.168692 0.397869 -4.318592 -1.963354 -0.139279 
-1.220133 -0.571531 -0.100064 1.335134 -3.024305 -3.298856 -0.778644 
-2.245772 -3.641019 -2.832872 -1.456857 1.710450 -0.853665 -1.512077 
-3.175319 -0.337032 -1.162606 -1.592566 0.974210 -0.786628 -5.955943 
-0.490839 0.053361 0.796940 -0.652693 -2.123124 -1.325605 -0.586806 
-0.099371 -0.903979 1.954474 0.147490 -2.113272 -2.603678 -0.209594 
-1.162441 -1.030265 -1.374130 -1.983596 0.716259 -1.905908 -1.496864 
-1.884122 -1.284891 -3.689414 -0.315047 0.781663 0.233005 -1.987836 
1.757806 -3.632873 0.054054 -3.786193 -2.256646 -0.939801 -0.683834 
-1.566927 -3.037490 1.207613 -0.256836 -0.087176 -1.327837 1.856797 
-1.804727 -1.279974 -1.704939 -5.032038 -0.021555 -0.540658 -1.787330 
-3.113444 -0.308215 -3.224332 -2.543453 -3.237866 -2.880850 -0.661962 
-0.288258 -0.681834 0.005305 -0.780616 -3.665346 -0.504107 -1.010764 
-0.280495 -2.306961 -4.329443 -2.173855 -2.341612 0.672867 -0.177691 
2.739037 -0.059068 -5.889589 -3.943257 0.134936 -1.029904 -2.776374 
1.919988 1.259417 -6.282327 -1.310992 -4.101498 -5.234110 -2.126787 
-5.562766 -4.163958 -0.619883 -2.794748 -0.775890 -5.851768 0.203717 
-0.372590 -2.720002 -0.014021 1.125302 -3.176755 0.085111 -0.735993 
-0.445208 2.299229 -5.272436 -0.720452 0.528008 1.209597 -4.796731 
5.064982 -2.523981 -1.359052 -2.999385 -0.452154 -0.204844 -1.413842 
-3.830435 -2.297202 1.584196 -5.613940 -4.864768 -1.129401 -0.252385 
-1.574263 -3.714354 1.250169 1.743775 2.278065 1.793244 -3.819628 
-0.427654 -2.925096 -2.747150 2.500185 -2.004035 -0.724187 -2.132925 
-1.253807 -1.478198 -0.716749 -2.464639 0.028772 -4.535760 -2.773934 
-1.648384 -6.111958 3.048688 -2.221533 -3.049863 -5.107256 -0.737800 
-2.925652 -3.871736 -3.972959 -5.192959 0.114128 1.476545 -2.789573 
-1.810704 -1.392944 -4.134154 -2.180353 -0.039147 -1.364403 -2.530181 
-3.811740 -2.563529 -2.391911 -0.390798 -1.436168 2.111042 -2.988445 
-4.941402 -4.053960 -2.290199 -0.825242 -3.240553 1.134480 -1.157976 
-2.216294 -1.281951 -3.234860 -5.066273 -1.074248 -5.821180 -2.105865 
-3.194305 -2.043114 -2.168897 -5.277888 -1.988122 -2.151243 -2.076456 
-0.669658 0.805941 -1.475682 -2.207787 -1.714146 -0.205442 0.107766 
-4.686489 -1.635317 -1.568064 -1.839297 -4.569104 1.888639 -3.250387 
-2.634957 -2.848160 -1.205007 -2.485636 -1.902489 -5.620493 -2.923530 
-0.626338 -3.149571 -5.881925 -1.805373 1.151177 -1.188811 -3.364025 
0.102583 -0.137560 -0.482370 0.339855 -1.960496 -1.871584 -1.851672 
-1.306133 1.305099 -1.998222 -1.424935 -2.955174 -2.691350 -2.641582 
-0.700976 -2.557535 -2.159372 -5.046231 -3.065562 -1.519031 -3.992150 
-0.694993 -2.624871 -2.330166 -3.548069 -2.462360 -1.931697 -3.218556 
-3.083865 -4.315416 -1.725374 1.041824 -2.879435 -3.872782 -2.828032 
-3.708543 -2.393350 0.352538 -1.731691 -2.308391 -1.880924 -3.607656 
-3.257277 -1.286033 -1.699284 0.207049 -4.959468 -4.944617 -4.423934 
-2.797843 -1.285413 -2.740207 0.454659 -2.759814 0.166025 -0.470455 
-2.650798 -4.675571 -1.080920 -5.517159 -3.418619 -3.150629 -3.663026 
-2.116397 -3.545646 -2.654389 -2.029627 -0.621410 -4.434465 -0.115176 
0.422240 -4.088960 -0.590025 -1.367415 0.782444 -1.255444 -1.904287 
-1.725525 -2.230998 -4.304750 -0.159278 -3.317956 -1.582477 -2.252718 
-0.535102 -2.504254 0.012645 -4.864340 -2.191145 -0.894671 -2.683744 
-5.453838 -3.227154 2.078575 -0.380319 -2.514815 -1.525816 -2.593827 
-2.106604 0.019381 -0.564411 -3.979398 0.551114 -3.425848 -0.439325 
-1.823864 -2.423117 -2.764327 -3.351662 -2.741781 -3.872978 -2.601165 
-3.281021 -3.139047 -2.407732 0.606735 -2.821192 -1.205636 -1.598547 
-0.476608 -2.924473 -1.453366 -2.467405 -2.110685 -1.269968 -5.176999 
-2.369996 1.129839 -2.784927 -3.684453 -3.858489 -2.371391 -3.519857 
0.270513 -2.109459 -2.126090 -0.314196 0.582176 -2.091897 -0.604857 
0.496273 -1.836346 -1.822122 0.911967 -0.347170 -2.118389 0.587313 
1.585046 -1.798311 -1.530420 -0.816859 -0.243725 0.119998 0.320353 
0.021601 2.128108 -0.201630 -0.651212 0.295923 -0.257430 -0.781676 
-0.609589 -1.467163 -0.860329 -1.800839 -2.266684 -0.108302 -0.521577 
-1.194310 -2.935984 -1.130597 -1.197452 0.053927 -0.963817 -0.926436 
0.207866 -3.737914 -2.074997 0.496670 -0.097346 -2.816127 -0.946521 
-1.448632 0.085091 1.218331 -1.674878 1.700764 1.202137 -1.449290 
0.110440 -0.301768 1.809108 -4.465845 -2.880302 -0.626649 -0.224957 
0.793819 -0.667493 0.149971 -2.248521 -2.576928 -3.718372 -2.301487 
-1.496796 -1.173774 0.096661 -1.537737 -1.053056 -2.387850 0.122609 
0.761946 3.077657 0.746617 -3.183182 0.593752 0.250488 0.004396 
-0.488215 1.492394 -1.298525 0.195199 3.832190 -1.174301 -1.518442 
-1.182204 1.301050 -0.978465 -0.792233 -0.103980 1.343246 -2.846155 
-1.355521 -0.023555 2.114098 -0.860165 -0.931931 1.364152 -1.211423 
1.250921 -0.402838 0.859546 -1.743910 -0.942864 3.510895 -2.875701 
0.440167 -0.940561 -3.578528 0.925683 -1.066005 -2.461476 2.750385 
0.355820 0.268993 2.488615 -0.684389 -0.403583 -0.326531 -2.183113 
-2.721410 1.840385 -0.492091 -4.514247 -0.473917 -1.100405 0.547663 
-2.368120 -2.793420 -0.352671 -3.570947 -2.003694 1.450894 -0.217880 
0.084899 -1.711831 -1.087311 -3.353592 -0.601301 -4.600501 -0.437811 
0.204435 -3.935461 2.548861 1.755293 -2.331355 -2.312089 -3.093704 
4.858862 -2.830855 -1.779360 -1.564936 -1.400746 -0.745192 4.342799 
-1.891540 -0.872759 -2.542361 -1.827097 -2.027284 -3.147514 3.421742 
1.975560 2.309949 -0.995215 -0.536738 0.151067 0.066904 0.431387 
-2.665475 -4.085415 -0.731387 -1.912170 -0.307790 -0.906113 0.371616 
-2.302337 -2.065560 2.232270 -2.748172 -2.130866 1.196491 -0.109633 
0.022880 -3.405685 2.316121 -1.657333 -2.848351 -3.335060 -2.296434 
-0.009299 -0.652942 1.387285 0.081547 2.743001 1.182754 -3.536899 
-0.922159 -0.726471 -1.450794 -0.260135 -0.732025 2.802526 -3.514946 
-2.666713 -1.222074 -4.246401 -3.439553 -2.462258 -2.106666 -0.750305 
-1.431398 -1.521775 -2.914439 0.961644 -0.680612 -3.211312 2.041736 
1.306834 -4.898436 -1.500413 -0.874052 0.872063 1.088371 -3.792624 
0.052916 -1.752613 -0.492915 -1.957854 4.101235 -0.896170 -2.771246 
-2.603542 -0.855446 1.305717 -3.013766 -4.039318 -1.775342 -0.944044 
-2.320686 -3.197627 -1.357916 -2.065435 -2.384697 0.864279 1.598466 
-0.961363 0.296858 -0.041753 -2.192907 2.256097 -3.199587 -1.387407 
2.084653 -0.521272 0.256010 -1.631946 1.269007 -1.211513 1.408518 
-1.898265 0.805133 -3.355780 -2.182630 -2.089430 -5.515115 2.029301 
-1.594872 -3.323133 -4.014983 -2.903408 -1.956856 -3.316078 -3.553966 
-3.477809 0.111787 2.063376 -0.534557 -1.903790 -1.172027 -3.140782 
-0.744626 -0.145357 -1.052492 -4.337994 -1.592081 -0.656214 -0.813364 
0.680426 -0.085673 1.193456 0.371166 -3.094249 -1.241810 -0.380788 
-1.381470 -1.785262 0.155457 0.570255 -1.746581 -0.944311 -0.862905 
-3.230001 -1.640606 -2.314156 -1.291092 -1.846901 -1.639912 -1.985424 
-2.693386 0.505882 -0.196310 -2.583968 0.200505 -0.238315 -2.926814 
-2.261691 -0.229234 -0.584029 -0.400169 -2.226499 -1.022052 -1.894570 
-2.217963 -2.535371 2.332730 -1.079811 -1.832051 -2.271308 0.502764 
0.544233 -1.419842 -3.669446 -1.989517 -1.078098 -2.011578 -3.542251 
-1.103742 -0.394602 -1.510694 0.265363 1.169372 -1.016773 -1.267508 
0.053837 -0.430312 -0.100171 -1.389832 -0.387626 1.000476 -0.030644 
0.561097 -1.343623 0.024782 -1.884237 0.551901 -1.681275 0.826853 
-3.019140 -2.671176 -1.229094 -3.827503 1.456470 -1.097699 -3.169721 
-2.177536 -2.719293 -2.569530 -2.321990 -1.591925 -3.991457 -1.033337 
2.258583 -0.691725 -2.439564 -1.745415 -2.312599 -1.117145 0.482065 
-0.211839 -2.488849 -1.035932 -0.175311 -1.140547 -0.539363 -0.858738 
0.077946 -1.829570 -1.773946 -1.924589 -1.468418 -2.251282 -1.427055 
-1.156996 0.204916 0.824735 -1.560379 -0.972179 -2.304080 -1.766920 
-2.576738 -0.778326 -2.329321 -2.080308 -3.181461 -1.971493 -1.326507 
-1.211336 -2.594090 -1.174949 -0.258070 -2.196357 -3.044158 -0.940293 
-0.766309 -0.431870 -1.722363 -1.872927 -2.979358 -3.095130 -1.819122 
0.864005 -2.135420 -3.135022 -2.317334 -0.015549 0.147856 -1.652975 
-3.763690 -2.473550 -2.438071 -1.171271 -3.390933 -1.916647 -0.637559 
-2.015908 -0.661049 0.343075 -2.988597 -2.448195 -1.446234 0.096209 
-0.799476 -1.270635 -0.453780 -0.348214 -0.482043 0.467553 -1.970215 
0.326483 -2.551763 -0.807538 -1.668114 -1.249838 -3.715227 -2.843744 
-1.852137 -3.084565 -0.764171 -1.189113 -2.153615 -1.772224 -3.686389 
-2.315408 -2.088419 -1.643873 -3.931823 -1.507508 1.848457 -0.385404 
-3.700677 -2.714737 -1.721427 -2.012408 -0.077036 -0.697008 -2.952224 
-2.884400 -3.477848 -3.026386 -0.451226 0.680881 1.126624 -1.233805 
-3.823334 -3.773080 -1.026922 -0.713372 -1.969658 1.096500 -0.786393 
-2.423831 -1.664653 -2.130901 -2.932344 -0.894586 -4.406934 -2.244623 
-1.757748 -2.006575 -2.194166 -4.865666 -0.927934 -1.050873 -1.920600 
-2.294087 0.251483 -2.353395 -2.732595 -0.926622 -1.966003 -1.394991 
-3.478912 -2.126367 -0.927173 -2.613672 -3.184047 1.230051 -3.041933 
-1.140434 -3.650489 -1.219436 -1.177477 -0.402595 -4.143731 -3.383958 
-1.049596 -2.839807 -3.323164 -2.260264 1.484298 -1.048091 -0.419308 
-0.191093 -1.274401 -1.607538 0.133342 -1.339538 -2.016142 -0.224917 
-2.392448 0.162838 -1.211180 -0.724024 -2.917430 -0.606228 -1.978750 
-2.272902 -2.895041 -1.438820 -3.081272 -2.871517 0.176420 -3.936445 
-0.912526 -0.346083 -1.939683 -2.413478 -2.161602 -2.160712 -2.250156 
-1.711254 -3.101021 -2.320488 0.802069 -2.505111 -2.080823 -3.424960 
-3.629659 -2.444363 1.011426 -0.927185 -1.983750 -1.425572 -1.495672 
-3.010962 -2.294401 2.676933 -1.206918 -1.314442 -0.852719 -1.706192 
-1.785511 -0.383204 0.304673 -0.231151 -2.435887 -3.981143 -0.973063 
-1.794946 -0.638532 1.729882 -0.396929 -1.494409 -0.759609 0.802725 
0.014522 -1.195771 -1.644692 -1.875275 -3.239158 -1.755181 0.153663 
0.710610 -0.897139 -1.918830 -1.399747 -2.572457 -2.508866 -2.060981 
-0.635332 -0.857463 -1.320860 -1.617200 -3.200744 0.611061 -1.987007 
-4.083250 -1.518720 -1.840668 -0.145896 -1.712437 -2.148655 -0.354005 
1.762371 -1.545077 1.276144 -1.630579 1.228172 -3.424155 -1.086431 
0.853069 -2.105054 -2.084720 -0.199351 1.825176 -2.227031 -2.306558 
-2.967582 -0.903131 -2.460362 -0.211928 1.159902 -1.527484 -2.028799 
-3.942505 0.786982 -0.095429 0.807596 -1.401975 -3.737665 0.172747 
-1.333025 -0.863245 -0.430148 1.199819 -2.277761 -1.175139 2.223472 
-3.727669 -2.918121 -1.723493 0.790737 -0.538410 -3.071510 -0.385949 
-0.100938 -2.305032 -1.148495 -0.059895 5.388851 -1.379203 1.773546 
3.440222 1.616282 1.737415 -0.493691 1.992620 -2.913021 -1.681800 
3.080798 -4.212598 2.033286 -2.142784 -1.551972 0.308354 -2.494621 
-3.168760 2.977790 -1.347159 -2.213948 1.153619 0.141551 0.152573 
0.190695 -2.401567 -5.216510 2.388785 1.309228 -2.603765 -0.776054 
-1.296451 0.325965 0.498983 -5.256062 0.501423 -3.183803 -2.155733 
0.126045 3.299202 -0.874044 -3.309069 -1.055197 -5.046217 2.183287 
-7.237661 -3.932847 -0.033213 -6.078053 1.220597 0.357741 -2.976423 
-1.991774 -3.101619 5.492726 -2.888192 -3.351680 1.812583 -4.529063 
-1.234651 5.930723 -1.386868 -1.138304 1.279523 -2.228084 0.309442 
-2.465311 4.108755 0.262502 3.600789 -2.508490 -0.954297 -1.211109 
-0.071557 -0.614184 -2.563754 -3.077209 -3.037700 -4.330428 -1.515635 
-2.212901 1.293347 -4.039831 -2.147562 0.680727 -0.327716 -0.247844 
1.446968 -2.365069 1.366478 -3.432539 1.472703 -1.363165 -5.015310 
-5.809207 -0.568544 3.191283 0.268339 1.391246 0.115837 1.348198 
1.427400 0.722184 1.087109 -1.436086 -1.874890 0.824649 -1.425879 
2.510725 -0.066796 -0.395133 0.538384 -1.729210 -1.788924 0.381455 
0.399449 -2.622640 0.368296 -2.585386 -0.460861 0.114386 0.018969 
-3.282401 1.922987 -0.234007 -2.714881 -1.879548 -1.277108 -0.372573 
-0.351114 -2.007178 -0.195949 -2.053180 -3.404090 -0.157486 1.491111 
-0.391804 -1.897498 -1.299673 0.000042 1.347476 -2.964266 -3.649118 
-1.808958 -2.803182 -0.540644 -1.883710 -0.150903 -1.093288 -0.212943 
1.999012 0.975181 -1.886372 -1.117160 -1.915486 1.126183 2.039399 
-1.436234 1.737803 1.239260 -0.098531 2.551650 0.354262 1.950374 
-2.399854 2.222683 -0.934454 0.413811 -3.035264 -2.481397 -1.627844 
-2.118595 0.851510 -1.460311 -3.293144 -1.192487 -3.938242 -0.454414 
-1.409970 -0.589103 -1.905645 -0.317204 2.729935 0.795150 -2.153030 
-1.649866 -0.356589 -0.031427 0.236633 -0.367886 -2.944869 0.550711 
1.825632 0.611905 0.473492 -1.769230 -1.031289 -1.637185 0.479175 
0.517541 -2.206942 -1.489638 0.108685 -1.788115 0.606229 3.934501 
-1.549190 1.626770 -0.187601 -0.865861 0.156729 1.804982 -2.093635 
0.576486 -4.280425 0.542800 -0.862940 0.231404 -1.535652 -0.357287 
-2.356819 -2.833215 -2.069654 -0.649783 -0.450018 -1.680116 0.372995 
-1.431058 -2.832348 -5.022586 0.813640 -2.379932 0.046914 -1.412100 
-0.976540 0.859893 -0.939450 -1.091400 -2.270979 -1.102472 -2.605640 
0.692879 -2.546346 0.427748 -1.429858 0.370253 0.980831 -0.305807 
-2.610509 -3.965897 -1.205123 2.710818 -0.614985 -0.922028 2.281773 
-1.789028 1.358317 0.342426 0.156189 0.286251 -2.585862 0.690454 
-0.229978 0.504829 -2.330594 -1.849302 0.092782 0.280144 -1.557153 
-0.728874 -1.262764 0.699158 -3.761128 -0.704548 1.085585 0.808583 
-1.649952 -1.315720 1.079960 0.263152 -2.140030 -3.059635 0.353102 
-0.370050 0.900287 0.105661 -1.456060 0.012453 0.301007 0.149357 
0.090223 -2.342644 0.487578 -2.320485 -0.442818 -1.659435 -1.866971 
-0.898652 -0.025399 -1.187088 -0.012118 3.139994 -2.903036 0.601283 
-0.048744 -1.162789 -0.709403 1.888721 -1.506794 1.260759 -3.634455 
-2.491580 -1.774329 -1.408934 -1.843713 0.874542 -1.387267 -2.956484 
-1.615166 -0.167478 0.272610 -2.379713 -2.118096 -2.060888 -1.921026 
-3.962166 0.807106 -1.574849 -0.199478 -1.949676 -0.876579 -0.787297 
-1.586889 -2.198929 -3.187194 -0.973132 -2.168990 1.392070 -2.107066 
-0.801786 0.074555 -0.497185 0.881779 -0.975592 -2.292807 -3.241938 
-0.419550 1.698029 0.080321 -1.825438 1.163304 -1.704983 -0.182678 
-0.517612 -1.922042 0.489450 -2.240648 1.097522 -0.724711 -0.180036 
-3.030528 -1.010471 0.973319 -1.176211 -1.979307 -0.631402 -1.606523 
-0.348179 -3.636388 -0.981329 -0.921277 0.616047 -0.234906 -1.632845 
0.605538 -0.075712 -2.152042 -2.670447 -0.287624 -0.645345 0.631580 
-0.043625 -1.229414 -2.837424 -1.529388 -1.465405 -0.713048 0.072780 
-0.425978 -0.279638 -0.622849 -2.705627 -0.817856 -0.156904 -0.971915 
-0.316892 -0.387463 -2.263602 -2.504281 -0.319173 0.074778 0.031351 
-1.180553 -0.486420 -0.397472 1.158623 -1.569842 -3.249783 -0.380784 
-1.285478 -1.841190 0.105956 -0.917808 -2.579064 -0.170265 -0.711221 
-2.479236 -2.265742 -3.381639 -1.965213 0.190599 -1.316563 -1.304709 
-1.026797 -1.867663 0.037488 -2.481359 -0.942643 -0.595715 -0.587889 
-1.770177 -1.993650 -0.102856 -1.939379 -0.067827 -0.258239 -0.078538 
-0.815340 0.551106 -2.159818 -0.341445 -0.312099 0.707509 -1.540349 
-1.579866 -0.952296 -1.088004 -1.311237 -2.097659 -1.259547 -2.209023 
-0.200783 -1.782643 -0.257750 -1.416694 -0.860471 -2.407938 -1.377608 
1.301456 -2.584976 -0.897718 0.079192 -2.321122 -0.867109 -1.946858 
-0.540964 -2.436911 -1.012207 1.443265 -0.973216 -0.585369 -1.681636 
0.896302 -0.882624 -1.623371 -0.378909 0.850116 -0.267829 -0.377367 
-2.855652 -2.691321 -3.141304 -2.617837 3.069370 -0.258423 -0.993182 
-2.192008 -2.346963 -1.026916 -0.839235 -1.628490 0.881716 -2.002253 
-5.341830 -0.333554 -2.884464 -1.937207 1.043458 -1.719703 -3.299520 
-1.216485 -0.897010 0.405697 -2.358118 -1.590898 -2.470821 -3.635306 
-2.683704 1.505964 0.850038 -2.367944 -2.198322 -1.542844 -2.350212 
-3.173692 -1.740145 -1.288691 -0.312295 -2.762270 0.917592 -3.830915 
0.390408 -2.018476 -3.196837 -0.767507 -1.621539 -1.553109 -2.297670 
-0.825504 -2.655716 0.291283 -1.871472 1.859686 -1.935136 -0.178017 
-2.233216 0.357091 1.960460 -2.390793 -4.034530 -1.181465 1.739127 
-2.727403 -0.707339 -2.309147 -0.126863 -3.389683 0.399606 0.639132 
-1.835800 -3.143428 -3.919251 -0.452120 -0.763551 -1.581875 -2.807158 
-2.814682 -0.056433 -2.627423 -2.233945 -0.528975 0.122354 -2.118961 
-1.960918 -0.090063 -4.463535 -1.371613 -2.145941 -0.861184 -0.348701 
-3.320650 -2.454860 -1.147390 -1.938010 -1.460882 -2.004972 1.211601 
-2.635955 0.017350 1.207912 0.052014 1.386375 -1.687330 0.613867 
-0.887463 -3.245977 0.215927 -2.694809 0.501177 -5.770306 0.618853 
-2.191543 -4.105579 -2.490634 0.308558 -3.501050 -1.913638 -2.430075 
1.273672 0.416185 -0.636729 -1.862952 -3.319292 -1.301710 1.111995 
-0.028521 -0.964410 -2.664598 -1.339064 1.486764 -2.050221 0.851904 
-1.457367 1.849309 -2.561587 2.716652 -2.179158 -2.415825 -1.576542 
-2.547171 1.426276 -2.996370 -1.662774 -1.703037 -1.812063 -2.723924 
-0.298870 -2.661661 -2.621760 -2.901919 -0.605604 -0.858195 -0.803156 
2.677729 -4.035609 -3.849712 1.404553 -0.872109 -2.635256 1.045146 
-2.777789 0.065231 -1.279135 1.086654 0.059657 -0.741288 -2.915255 
-1.067235 -1.018683 -1.716652 -2.583862 -1.773842 -0.166677 -2.120685 
-3.331664 -2.301843 -0.003374 -0.893139 -2.967999 -3.591298 -2.242868 
-0.106773 -0.732196 -0.737293 -2.163979 1.233543 -3.268127 -1.103343 
-2.480621 -3.160769 -3.311414 0.938434 2.221609 -0.637944 -0.129355 
0.225786 -1.985395 0.439383 0.938329 2.271955 -1.067729 -2.366805 
0.402104 -2.674195 -0.521058 0.052578 2.563223 -0.340989 -1.917917 
-1.963667 1.903482 -0.512708 -1.444807 -2.505834 -1.612340 2.185416 
0.020605 -0.870072 -1.716108 -2.630579 -2.026397 0.483751 -1.694407 
-1.759894 -2.038990 0.556682 2.292092 0.349323 -2.746567 -0.683346 
-0.749632 -0.539540 -0.582343 -1.666101 -1.717222 0.811036 1.208931 
-0.403754 -0.672921 -0.934161 -0.858175 0.007858 -1.136343 -0.901105 
-2.874473 -0.811369 1.000728 0.172951 -2.737993 -0.996078 -2.670100 
0.831386 -0.257144 0.374933 -0.267383 -1.057880 0.109610 1.452820 
0.608944 0.916298 -1.258261 -2.250263 -1.865027 0.528973 -1.192663 
-2.840982 -1.732848 0.558825 0.001147 0.264482 -1.453721 0.258259 
-1.524466 -0.427727 -0.335596 0.423285 -2.339061 -0.849542 0.957860 
-0.045745 -1.748614 -1.616438 -0.683259 -1.476813 -0.347074 -1.119174 
-1.742900 0.122037 0.477306 -0.161235 -0.607645 -1.825325 0.029843 
-1.685514 0.243868 -0.799784 -1.485251 -0.794990 0.236439 -1.298769 
-0.483835 2.364042 -1.194479 0.101526 -0.060478 -1.088401 -0.166498 
0.815310 -1.140831 -0.159564 -2.397985 -0.076378 -0.632317 -1.100973 
-0.200145 -0.513606 -1.287629 -0.991499 -1.673933 -0.178557 -0.630565 
-1.241212 -0.200669 -0.758057 -2.110574 -2.913377 -0.196840 -1.675429 
-0.656953 -1.483029 -0.970173 0.296774 -0.337228 -0.645626 -1.881785 
-0.507185 -1.890307 0.106891 -1.069825 -1.139810 -0.544179 0.199877 
0.674525 -1.053725 -2.117954 -2.543309 -0.596926 1.666752 -1.080494 
-0.869165 0.172597 -1.220357 -0.095197 -0.606701 -0.552979 -0.580276 
-1.174646 -0.228151 -0.747879 -0.305726 -1.418045 -0.454408 0.101526 
0.027097 -1.114721 -0.321826 -0.117387 0.408635 -1.450323 -1.056801 
0.044962 0.607587 -0.491531 -0.541754 1.036550 0.376514 -0.927202 
-1.336233 -0.122482 -0.618277 0.683018 -0.013263 -1.329478 -0.982363 
-0.060792 -1.213121 -1.401814 -1.429402 -0.950646 -1.405691 0.188579 
-0.785594 -1.777021 -1.097650 0.054122 -1.063898 -1.107294 1.124035 
-1.600911 -0.325171 -0.539366 -0.487214 -0.408274 0.657461 -0.851174 
0.191715 -1.094505 -1.628842 -1.031404 -1.537269 -1.135878 -0.683258 
-0.744658 -1.017875 -0.064217 -0.782117 -0.527400 -1.272596 -1.113650 
-1.318572 -1.150748 -1.783005 0.212584 -1.235413 -0.621717 -1.013772 
-0.378334 -1.672172 -1.197633 -1.361917 -1.501486 -0.839561 -1.185356 
0.614116 0.060458 -0.518427 -1.030979 -0.594411 -0.476349 -2.132589 
-0.870879 -1.650355 -0.422597 -0.288674 -0.762403 -1.282635 -0.287410 
-1.532072 -0.910455 -1.774734 -1.239497 0.041058 -0.859449 -0.468655 
-0.006512 -0.976315 -0.953550 -0.695080 0.250008 -0.862394 -2.217339 
-0.297067 -0.544223 -0.164459 -1.015576 -0.582752 -1.422240 -0.788836 
1.216826 -0.937161 -1.621022 -0.055780 -0.867942 -0.472139 -0.733321 
-0.320148 -0.632407 -0.619731 -1.047540 -2.644868 -2.164335 -3.475323 
-2.443342 1.319900 -0.856485 -0.413640 -1.341003 -1.952067 -0.369908 
-1.431739 -1.306258 -0.051404 -1.534802 -5.248321 -0.137236 -2.359206 
-1.093541 -0.060232 -1.590859 -3.147820 -0.244283 -1.404281 0.312130 
-2.816204 -0.275240 -2.178171 -1.948611 -2.058757 0.306885 0.037160 
-1.111197 -1.397548 -3.170107 -1.744801 -2.538114 -1.460205 0.063393 
0.215812 -3.414463 0.396530 -3.530131 0.300901 -2.674972 -2.094233 
-0.971929 -0.827678 -0.137856 -2.526229 0.279033 -2.745894 0.956126 
-1.989930 -0.115629 -1.711792 -1.092690 -2.651561 -0.272229 1.898170 
-0.707408 -4.237806 -2.134312 0.731475 -2.840801 -0.804392 -3.146826 
-1.712400 -2.326889 0.163449 -0.196708 -2.421130 -2.205377 -2.144870 
-0.279187 -1.464669 -0.391563 -2.394161 -1.218485 0.056943 -1.441311 
-1.826136 0.366726 -0.333978 -2.094455 -2.391530 0.729337 -1.643530 
-2.120326 -2.702748 0.985556 0.117448 -2.861957 -1.252767 -0.916085 
-1.926472 -0.856859 -1.512847 -2.070455 -2.553842 -0.604049 1.476492 
0.617845 -0.417581 -2.234462 -1.672611 0.263419 -1.246355 -2.054984 
0.198697 -1.488703 -4.301291 1.535037 -2.418119 -2.324185 0.334715 
-1.801184 -2.629417 -1.859400 -1.984794 0.707107 -1.817238 -0.254580 
-0.818577 -2.060591 -2.191016 0.585360 1.344398 -2.199900 -1.565807 
-1.987182 -0.347854 -1.434068 -1.632713 -0.452571 0.244277 -3.376384 
1.237114 -2.892152 0.235921 -1.879250 -1.336944 0.293425 -0.428491 
-1.050391 -2.698645 -0.279222 -2.761172 -1.038441 -1.426846 1.009423 
-0.912816 -1.233262 0.069057 -0.373736 1.698179 -1.830858 -2.501999 
-1.312073 1.460495 -1.455506 0.517660 -1.552244 0.672496 -1.766733 
-0.445428 -1.108222 -2.058171 -2.204669 -1.886382 -1.124259 -2.000748 
-1.049893 -1.917724 0.000531 -0.519215 -2.435360 -1.410384 -0.572439 
-0.672422 -1.742664 -1.792226 -2.150864 -1.840183 0.571848 -2.217183 
-0.929509 -0.995146 -2.262743 -1.962392 -0.268300 -0.551351 -1.595442 
-0.637783 -0.574798 -1.034542 -1.195499 -2.756495 -4.755414 -0.004868 
-1.949307 1.079618 -1.129837 -3.656494 -0.933858 -2.145183 -2.329866 
-2.750068 2.535858 -2.618521 -2.696416 -2.181629 -0.163625 -2.129252 
-1.097003 -4.211901 -1.477110 2.164156 -1.551906 -0.231343 -0.339060 
-4.484096 -3.421815 0.394959 -1.977969 -3.436247 -3.012357 0.901266 
4.224845 0.473037 -2.446896 0.709057 -2.761807 -1.929845 -0.697737 
-1.182882 -1.608185 1.829842 -0.816211 0.877654 0.622110 -0.831888 
0.971561 -2.221959 -2.654907 -0.828247 -3.773217 -0.781425 -3.130910 
0.712353 -0.916952 -1.695804 -2.974837 -1.181332 -2.955106 -0.398320 
-1.028813 -1.523020 0.175820 -0.717640 0.829029 -2.116038 -1.979472 
-4.428708 -1.733633 0.931025 -0.464490 -3.735071 -5.023996 0.364786 
0.230329 -0.657738 -0.831388 0.228785 -0.035026 -2.213021 0.978943 
-0.757259 -5.880941 -1.970925 -0.199202 -0.993428 -1.450390 -1.769046 
-0.677389 -2.819010 -1.572826 -0.469881 0.019222 -2.666745 -0.614570 
-3.248722 -1.931405 -1.752522 -4.571858 0.099319 -3.684820 0.305778 
-1.627252 -4.393897 -1.868774 -3.461020 -2.781891 -7.247061 3.649269 
-4.172707 -5.219600 -3.591136 -0.135930 -5.090798 -0.837060 -6.290648 
1.161565 0.240857 -2.482329 -2.407643 -2.076432 -5.484034 -2.554688 
1.242129 -0.604192 -5.255486 -4.160081 2.102553 2.433214 1.728879 
-2.311091 3.882406 -4.790615 0.295518 -2.554208 -2.590648 -2.763095 
-1.034449 -0.473905 -0.947498 -0.015651 -0.740407 1.584778 -4.157358 
-0.893980 -2.680757 -6.152534 -3.109155 -4.879603 -1.463739 -0.344608 
2.328431 -4.102485 -5.764256 -2.855469 -1.752765 -4.958607 -2.174886 
-2.549602 -2.289132 -0.421800 -1.744757 -0.704921 -5.843008 -2.963145 
-0.206942 0.170262 -3.680748 -5.263243 -1.010708 -0.007775 -1.575406 
-0.995277 -1.817523 0.824345 -2.684395 -1.919112 -4.624937 -5.260131 
-1.241464 -3.074630 -3.224116 -1.668195 -0.972605 -3.392094 -2.806007 
-3.307098 -2.912845 -1.810673 -2.921242 -1.256785 -3.228554 -3.632403 
-1.623632 -4.489521 -0.344774 -2.398770 -0.906334 -1.954095 -5.413202 
-2.067068 -3.417466 -3.050506 -6.407109 1.939018 -4.445924 -4.484871 
-3.507364 -0.480383 -3.902889 -0.814077 -4.671893 0.607785 -0.197160 
-2.662935 -3.595702 -2.709774 -5.309876 -1.980053 1.538478 -1.226298 
-5.157019 -4.555155 0.920391 1.452649 0.482500 -2.133618 3.296068 
-4.094762 -0.696101 -3.156472 -3.272072 -2.308982 -1.870601 -1.273196 
-1.680808 -0.366965 -1.471903 1.020098 -3.832163 -0.776430 -3.501068 
-5.116000 -3.856187 -5.192146 -2.449320 0.317411 1.625314 -4.922651 
-6.160138 -2.981860 -1.454592 -3.810897 -2.925762 -3.640800 -2.734893 
-1.204189 -1.194651 -0.187170 -4.833630 -2.874291 -1.292911 -0.234509 
-3.236015 -5.902525 -1.428047 -1.689097 -1.272153 -1.030057 -1.913651 
1.091773 -2.219943 -2.428196 -4.151355 -4.398223 -1.619628 -4.187600 
-2.947629 -1.873464 0.397568 -4.379829 -2.377308 -5.066053 -3.405828 
-1.185256 -2.196144 -0.048370 -2.286683 -2.386904 -1.506951 -3.916488 
-0.498565 -1.932071 -0.173506 -1.964498 -4.824574 0.061216 -3.353309 
-2.484604 -4.156709 1.608578 -2.477539 -3.925856 -2.599540 -0.031177 
-2.772872 -1.119290 -3.776929 -0.884894 0.936554 -2.557804 -2.988961 
-2.781963 -4.591287 -1.533350 0.178807 -1.529315 -4.429386 -2.906495 
0.445359 1.287295 0.860005 -3.837673 1.288099 -3.084840 -0.926404 
-2.970235 -2.496434 -2.409249 -1.226183 -1.533436 -1.889096 -1.269655 
-1.318524 0.038179 -2.489394 -0.911475 -3.123553 -4.616418 -2.439037 
-3.270398 -1.358607 -0.727867 -0.130297 -3.324661 -3.648352 -1.985638 
-0.623936 -2.734803 -3.230934 -1.890354 -1.968683 -1.424057 -0.139742 
-0.851496 -4.278062 -2.513451 -0.820036 -0.245561 -3.807446 -4.272284 
-1.544374 -1.876782 -1.767238 -1.012567 -1.084520 -0.543298 -1.266250 
-1.500653 -2.923748 -3.933659 -2.262743 -3.130804 -2.418543 -2.987429 
-1.259291 -3.356445 -2.329740 -3.108299 -3.683483 -1.153160 -0.484992 
0.062251 -1.665909 -0.728048 -0.466603 -3.026466 -0.769777 -1.036503 
0.076332 -1.377444 -3.378939 -0.466898 -2.095891 -1.873107 -1.840840 
1.950878 -1.702119 -2.194049 -1.641126 0.559226 -1.529151 -2.530434 
-3.464704 -1.635958 0.732248 -1.074582 -0.318113 -2.203718 -4.403931 
-1.891539 -0.086434 -3.071988 -2.790310 -3.109614 0.245394 2.095186 
-0.417422 -2.735354 -1.929618 -2.855225 -0.458429 -2.392548 -1.128336 
-2.941202 0.110582 0.236403 0.458897 -1.727902 -2.118632 -0.176340 
-2.167528 -2.161178 -1.455644 -2.322629 -1.182338 -0.728064 0.298126 
-2.459961 -1.176668 -2.447468 -0.034797 -2.227212 0.415218 -1.075484 
-1.078908 -0.937374 0.930877 0.100144 0.023910 -2.493999 -3.054138 
-2.764749 -0.640316 -2.213931 -3.890442 -1.930613 -0.766737 -0.437269 
-0.194521 -1.813838 -0.290735 -1.710298 -1.273960 -0.346206 -0.679616 
-4.588508 -2.405035 1.139516 -1.521775 -2.169838 -2.373637 -0.857740 
-2.484845 0.344056 -1.198938 -2.148438 0.484403 1.366248 -0.047853 
0.541968 -0.695404 -1.704684 -0.311043 0.401329 0.786547 -0.605680 
-2.049963 0.351157 -1.029591 -0.777694 1.075052 1.819508 0.226850 
-1.071937 -0.848813 1.054783 0.407523 -1.327292 -1.417394 -1.639588 
0.903797 0.103954 0.482631 -0.942445 -2.564478 -1.639265 0.345956 
-2.640191 -1.087111 -1.496789 -0.454144 2.576625 -0.560133 -2.040247 
-1.450126 -0.704047 -1.038340 -0.337835 -0.819125 -0.810094 1.602430 
0.401649 0.571135 -0.912013 -0.998108 -0.858709 -0.178070 -2.174379 
0.009248 -1.349047 -0.175808 0.288428 0.808203 -1.824799 -2.072933 
-1.232154 2.024218 -1.330835 0.622150 0.420172 -0.289494 0.472737 
1.562585 0.506036 -0.241014 -2.049066 -1.481860 -0.748400 0.479869 
-1.732258 -2.552649 -1.114032 0.723975 0.473969 0.452111 -1.184528 
1.117460 -1.913581 -1.019980 1.546566 0.642230 -2.938150 -1.058847 
1.992413 -0.042870 -1.102778 -1.774245 0.719155 -0.951196 0.840010 
0.496675 -0.457982 0.179951 -0.584785 1.536065 -0.092791 0.813884 
-0.986478 0.360592 0.470749 -0.963109 -0.153374 1.645514 -2.197251 
1.736766 -1.509262 0.539567 -2.748981 -0.362923 -1.306619 0.769185 
-0.927639 -0.434840 -1.036523 0.901135 -0.600452 1.284017 -0.081195 
-0.593197 1.052766 0.012345 0.430144 -0.579213 -0.522522 0.531261 
-0.595399 0.459822 -1.463581 -0.101308 -1.854015 1.210349 1.129679 
-0.159174 0.751776 -2.450797 -0.352576 -0.720791 -1.416079 3.301455 
-2.935061 -1.241493 -2.355871 -2.717064 0.082191 -3.086892 -0.986740 
0.124969 -2.154939 -0.821357 -0.360877 1.926933 0.733309 0.131073 
-0.579424 -0.361593 -2.162075 -0.429269 1.594024 2.998892 -1.900443 
0.060330 -2.004927 0.906646 1.324833 0.309904 -1.817538 0.312543 
-0.236099 -1.767558 2.126480 -0.993183 -2.293443 1.473928 -1.183473 
2.059710 -0.834087 -0.340385 -0.571271 1.322635 -0.542845 -0.440386 
-1.290224 -1.200264 0.547586 -0.667479 -0.757855 -0.699279 2.167302 
0.548482 -0.152156 -0.175436 -0.873215 -0.224266 0.943934 -1.609849 
0.305985 0.684070 -0.560044 -1.146136 0.489238 -0.432953 1.413282 
1.991120 -1.796144 0.233947 -1.416244 0.707093 -1.422533 0.814184 
-1.612820 -1.137965 -0.350361 -2.904033 1.709440 -2.244486 0.601635 
-0.024367 0.776415 -0.895748 -0.890030 -0.662239 -0.103624 -0.891263 
-1.107985 -0.804393 -2.491595 1.030581 -0.218587 0.975300 -1.258620 
1.164912 0.348656 -1.793919 -1.110238 0.852620 -1.913085 1.377726 
-2.868620 -2.875193 4.239917 -2.195390 1.137811 -0.542323 -0.229988 
2.753626 2.772002 -2.882231 -0.460775 -0.985432 -2.557135 -0.566221 
-2.575308 -0.020104 -0.308967 0.074601 -2.097196 1.836272 -0.305870 
-0.050906 0.568552 -1.119883 -0.052376 -0.107489 1.495241 -0.733841 
-1.588270 1.224848 0.987801 -0.991802 2.539261 -1.445644 -1.467270 
-1.482093 2.779786 -1.528264 1.166987 0.432351 0.011313 -1.072327 
0.500684 -1.323863 -2.288095 3.040858 -0.851915 1.297905 -1.565132 
-0.193412 -0.921706 0.359649 -0.260426 -1.186146 -1.934018 -0.525525 
-0.485411 0.326425 -1.462389 2.588586 -0.260162 -1.458153 1.245656 
-0.955710 -0.219174 0.492782 -1.110834 -0.827111 -1.390015 -0.266690 
2.703381 0.301709 -0.583176 -1.275105 -0.132461 0.361176 0.195858 
-1.576076 -1.782623 3.470975 0.113651 0.117213 -0.150350 -1.120075 
-0.612294 1.185957 -1.174265 -0.915419 2.338138 -2.417423 -0.171733 
0.497843 -0.428545 0.033392 -1.110989 1.362707 -1.344180 3.074691 
0.504650 -0.560252 -0.763548 0.709826 0.396437 -0.851860 -1.690060 
-0.350532 0.683453 -0.847108 -2.061728 -0.587923 0.579989 0.327094 
-1.058017 0.137009 -0.068992 -0.912336 0.705285 0.672865 -0.450650 
0.700698 1.147755 0.122815 -0.869371 -0.142043 0.239439 -0.479712 
-0.921813 0.695150 0.235723 -1.619766 0.243455 -2.514060 2.355040 
-1.177045 1.558297 -0.006934 -0.919875 -1.813779 -2.267384 2.839903 
-0.129258 0.534242 0.157052 0.761958 0.900228 -1.697648 -0.665371 
-2.446254 0.744543 -0.331350 -1.277035 0.666062 -1.027723 0.672608 
-1.098172 -0.446947 0.689168 1.015418 4.780162 -3.373394 -1.932771 
-2.861129 0.599691 -1.542358 -3.099063 1.447289 -2.182915 -0.714615 
-0.205472 -0.129188 1.185374 -1.386634 0.264111 0.247994 0.486556 
-1.251294 0.495243 -1.349928 -1.173879 0.231595 -0.571446 -0.902115 
1.400837 -0.527674 1.301257 -0.768886 -1.697151 -0.602139 0.113217 
1.733677 -0.998294 1.240884 0.190173 0.116664 1.163620 -0.507318 
-3.126778 1.535589 1.878462 -2.997241 -1.896981 -1.323382 -2.463382 
1.732858 0.962025 -0.395535 -1.262491 4.617924 0.463773 -1.832944 
0.934582 -0.881528 0.327161 -1.919926 -1.530276 1.318790 -2.714682 
1.542311 0.733574 -1.703893 -0.815925 -0.326856 -1.651583 0.487516 
0.237122 -0.733129 0.806922 -1.918179 0.242464 -1.368353 1.419977 
-1.779493 1.117076 0.083611 0.163389 1.180848 -2.805237 -0.090467 
2.299757 -3.603726 1.808146 -0.023312 -1.500650 0.370215 -0.821054 
0.908574 -0.988030 0.172271 -1.343586 2.125409 -0.106298 -0.044323 
1.146862 -1.073311 0.130690 -2.820122 -2.282087 -2.054231 -0.280528 
-1.999939 -1.328259 2.374970 -3.706286 2.650463 -0.582198 0.182507 
-1.221094 0.921709 -0.967426 1.258704 0.550363 0.349533 0.572682 
-0.192929 0.718404 -0.242398 1.932886 -0.771397 0.724837 0.529267 
1.356671 0.189918 -1.136885 -1.370644 -1.090576 0.594909 -0.945308 
0.268085 0.395264 -0.028388 -0.594090 -1.187483 1.707852 -0.351902 
0.301993 -2.371116 -0.033598 2.030010 -1.197605 -0.742079 1.299070 
-1.719630 -0.325102 -0.393059 0.351371 -0.594757 -0.074667 0.056155 
-1.393759 -1.335773 -0.759617 1.160256 -1.227831 0.636870 -1.402861 
-1.988283 1.536171 0.784300 0.355351 -1.701266 1.971794 -1.548417 
-0.142716 -1.756961 -0.210477 1.707604 -0.237653 0.548024 0.070913 
-0.843283 2.351084 0.406434 0.368079 -1.409431 -1.091072 1.822702 
-2.206520 0.883231 0.494235 -0.276955 -0.844893 -1.201282 0.182769 
-0.522932 1.136987 -1.434629 -1.147912 0.111576 0.410137 -2.464622 
3.680050 -1.705792 -1.366159 -0.743882 -0.067039 1.350314 -1.140518 
0.421831 -0.801776 1.722491 -1.646508 -0.660912 0.676590 -1.436489 
0.458901 2.636381 -0.541797 -1.163630 -1.033431 -0.376518 1.074599 
0.391740 0.664703 -1.576031 -2.072396 -0.861771 1.027862 0.111028 
-0.682643 1.302666 1.506662 -0.753693 0.078913 -0.100721 -0.654288 
-2.546303 2.937371 -3.050743 0.776022 0.575340 -1.590576 -0.933717 
-0.474663 -1.367607 -0.145414 -1.223128 1.398690 0.434788 0.757900 
0.159963 -0.759366 -2.137911 0.379736 -0.599263 0.118586 1.205012 
0.372065 -1.029664 -2.812579 2.022020 -2.701047 2.643222 -2.070666 
-1.699616 -0.481963 -3.079002 0.067991 0.961790 -0.645884 0.437985 
1.417308 1.570224 -1.344499 0.649840 -0.534243 -1.026208 -1.175662 
-1.230056 0.644490 -0.666943 2.786534 -0.111025 -0.635013 0.103922 
-0.847466 0.575174 -1.205377 -2.135889 2.176406 -2.964146 -0.155024 
-0.013102 -2.334900 1.399835 -2.125203 -1.440560 -0.766730 -1.767268 
-1.518159 -0.161339 0.849877 -2.215741 -0.528133 -1.071440 3.821443 
-1.068285 1.315225 1.508142 -1.272718 1.444669 -2.394037 -1.816116 
0.633741 -1.273424 1.212560 1.010525 -2.142978 -0.947821 -1.604930 
1.186375 -2.217306 2.820117 -1.092592 0.491172 -0.387777 -1.341859 
2.629279 -0.561503 1.749001 -1.590856 -1.342653 -0.550593 -0.836660 
-2.056539 -3.098186 -1.600436 0.701868 0.272394 -1.567909 2.417800 
0.053096 -1.113635 1.244633 -0.092049 -1.371907 -2.349707 0.417704 
-1.101069 0.313543 -0.890363 -1.091975 0.520057 -1.206568 2.259319 
-0.178690 -1.918023 -0.159632 1.174773 -0.817725 1.318690 0.582479 
0.837335 0.229711 -0.493261 -0.240875 -2.428941 2.405960 0.119347 
-1.430562 0.609189 0.126214 1.385547 -1.271380 0.173675 -2.827289 
-0.249885 -0.093713 2.117576 -0.021694 -0.643776 0.494749 -1.122844 
0.681684 0.130602 -0.727699 -0.236078 -1.791112 -0.944855 -2.888204 
0.817223 -0.644914 3.176601 -2.133381 -1.241648 -1.993424 1.202129 
-1.833404 -0.944394 0.594338 -0.135484 0.209057 1.773706 -0.878764 
-1.152404 -0.923023 -0.233506 -0.856657 -1.418022 -1.891744 2.776736 
-1.253817 0.665177 0.335042 0.814745 0.285880 -0.100767 -1.038390 
0.208725 -0.401697 0.478439 0.162772 -1.073551 1.595820 -0.619621 
0.540222 -0.508316 -1.859925 1.373395 -2.131936 0.425457 1.760574 
0.478162 -1.619215 0.146117 0.793588 1.719764 -0.995998 0.002374 
0.736982 -1.100235 0.588470 0.504952 0.712453 -1.484126 -1.347470 
1.210403 -0.584823 -1.120487 0.646306 0.319547 -0.893942 -0.236831 
1.286500 -0.733520 0.633795 0.581831 0.746250 -2.399513 -1.451445 
-0.249636 -2.703370 -2.978613 -0.081348 -1.893704 2.980373 0.593258 
0.017063 2.041113 0.993557 -0.838867 -0.870973 -1.898331 2.479305 
-1.328327 -1.504730 -2.257543 -0.065019 0.411120 -1.039876 -2.546171 
1.158157 -1.593925 -0.995807 2.108110 0.798832 -0.811099 1.103216 
-0.507423 -1.405932 -0.928939 1.044494 -0.725864 -0.630872 -2.065383 
-1.408335 0.150600 -1.420163 0.727080 0.735723 -1.404989 0.041863 
-2.098430 1.482751 -1.673496 0.989833 0.246255 0.026427 1.219013 
-0.818834 0.050355 -0.053138 -1.322651 1.101879 -1.541521 -1.456696 
1.164774 -1.880360 -0.332479 1.713295 -2.316205 1.076270 -0.387872 
-0.188032 -0.993453 -0.319894 1.163532 0.345570 -0.702841 0.684820 
0.259596 -1.363088 -0.511241 -0.332540 -0.704554 -1.185754 -0.992699 
0.568145 1.654278 0.103419 0.339866 0.634297 -0.608774 0.952493 
-1.133893 -0.946023 -0.874706 1.740589 0.518229 -0.732231 0.301926 
-1.055902 -1.794685 1.664049 -1.371794 -0.588235 2.795504 0.809907 
-2.514285 -1.509039 1.070969 -0.504873 -1.601123 1.983390 -1.575918 
-0.818120 -0.113850 -1.953390 -0.286081 -1.526201 -2.760207 -0.827659 
-3.058941 2.295561 1.591016 1.353400 -3.285811 1.342391 0.482295 
-1.354333 0.179206 -1.955360 -0.485201 -3.012719 0.807700 0.739363 
0.124711 -1.277422 0.526625 -1.233886 1.237136 -0.688559 0.425925 
0.299493 -0.169347 -0.087172 1.294228 1.114391 -1.330191 -1.412771 
-0.583053 2.247273 -0.152162 -0.434991 -1.493056 -0.564424 1.347666 
-1.643277 -0.964530 -0.028186 -1.149593 0.448012 0.460971 0.514068 
0.133456 -1.239886 -0.812571 1.192202 1.078849 -0.427904 0.237247 
-0.163490 -1.944869 2.640593 -0.600472 -0.595775 1.298703 -1.457745 
-0.552104 -1.219173 1.179405 -0.180161 0.394372 -0.268128 -0.449531 
0.289432 -1.603501 2.257381 -0.778855 -1.231573 0.652988 -1.212444 
-1.666998 -2.790451 -1.032452 0.939131 -2.585742 1.702970 -0.341027 
-1.733431 0.399597 2.011621 -1.113615 1.184143 -0.711436 -1.070616 
-0.992033 0.285478 -0.053648 0.283514 -0.626650 1.871911 -2.218581 
1.919135 -1.399313 -1.222814 
